2 7 3 8 4
-3.61852 3.01952 0.936245 0.901696 -0.831315 -3.37841 2.50791 0.517445 -0.992317 -0.129943 -0.375547 0.40454 3.90979 -0.104482 1.15487 -0.349667 -1.14045 -1.49931 -0.558475 0.332008 0.953202 -0.844574 0.798189 1.54262 1.62859 0.459537 -0.105735 1.08517 2.87333 -2.31306 0.100125 -0.758888 0.233051 6.68479 3.42675 1.10353 -1.23642 -0.805346 -0.985586 -0.0494977 5.21791 -0.132207 -5.54164 4.58532 0.467242 0.269115 -0.37526 -6.22441 1.48568 1.4605 -1.31278 0.667493 -0.0576794 0.155092 4.40196 -0.086967 
-4.17493 1.73267 -0.144462 0.853269 -0.726311 1.102 -0.728692 1.83763 
-0.911191 -1.2064 2.23698 -2.79963 0.748779 0.642389 1.20319 -1.70093 0.0217984 -1.68391 0.0351833 0.394816 -1.61726 -2.4382 0.563761 -1.5983 2.59193 -0.0743628 3.34944 -1.30037 -3.67702 2.33811 1.35984 -0.204405 2.53279 1.39136 -1.13877 0.806585 2.55863 0.67763 3.89138 2.42535 
-0.173951 0.545376 -0.635714 -2.43007 
-3.65707 6.2527 4.8249 6.33622 3.77363 -2.99458 -3.39349 -4.65524 -1.05645 0.465502 -2.94648 3.73297 
1.93233 -4.99878 -1.59218 
