2 7 3 8 4
-0.639215 0.694366 0.70933 1.17952 0.750161 -0.428789 -0.194323 -2.64363 2.54955 -0.244514 0.48932 0.355927 -2.17576 3.92414 -2.20279 2.4925 2.5534 2.84616 2.88958 0.739199 3.98498 0.766177 -0.889493 -0.966004 -1.23567 -1.07755 0.296206 0.363993 -1.16987 1.69226 -0.790062 -0.775263 -0.391738 -1.89444 0.193883 3.1315 -3.72798 -0.877837 -0.876317 -0.497283 2.44738 -4.03579 1.58704 -2.05903 3.716 3.38168 3.66047 3.56398 -6.31731 -1.60007 1.27432 0.667042 0.350188 0.57716 -0.594511 2.73918 
-0.07817 -0.138733 0.169398 -0.324188 0.124465 1.02072 -1.72386 0.111705 
-0.850432 0.39357 -0.208363 0.934717 1.4207 -0.201182 0.0404604 0.669634 -0.682615 -2.09498 -1.07314 0.67071 -0.820953 2.07922 1.81427 -1.20185 -0.167918 1.63638 0.757943 0.087444 1.55725 -2.00442 -1.01131 0.953118 1.23095 -0.00951748 0.28979 -2.33167 -0.043888 1.0777 -0.0603348 -0.280053 
1.09469 -0.382733 0.41234 -0.547055 
0.39328 1.46699 -1.18686 -2.34693 0.93314 -1.43709 1.50931 1.27905 -1.0543 1.15595 -0.930597 1.76565 
-2.32511 -0.108625 -2.44688 
