2 7 3 32 16
0.280733 -0.486406 0.418595 0.438282 -0.389273 1.15525 -0.396449 0.321823 0.290221 -0.136373 -0.214375 -0.470535 0.00137303 0.513978 0.487819 -0.252385 -0.414426 -0.649134 -0.311648 0.351783 -1.03783 0.385037 0.502831 0.0179937 -0.711192 -0.904581 0.0226583 0.734017 0.587717 -0.748423 -0.70792 -0.368559 -0.615824 -0.374714 0.240632 0.00635258 0.549053 0.232176 0.0300104 0.455988 -0.687718 -0.393023 -0.294921 0.726372 0.274939 0.615707 0.236393 -0.235703 0.124284 0.543467 -0.756102 -0.548302 -0.84362 -0.681752 0.44284 -0.0128389 1.66442 -1.4924 -0.0931955 -0.139673 0.0772402 1.54019 -2.17481 -1.00278 0.939278 -0.0054817 -0.28107 -0.0573381 -1.12259 1.62073 -0.440294 0.628767 -0.311916 -0.76763 -0.921943 -1.0072 0.184979 1.16577 -0.828673 -0.201266 -0.030963 -0.146726 0.535153 -0.18784 0.187855 -0.724682 0.519247 -0.142218 0.231056 0.791027 0.183994 0.926354 -0.55641 -0.97988 -0.837397 -1.03254 0.241649 0.139391 -0.414275 0.491523 -0.310156 -0.04615 0.0298704 0.33112 1.04242 -0.737486 0.842967 -0.68861 -0.851919 -0.541148 -1.19395 0.0764418 -1.48692 0.774318 0.0995954 0.125945 -0.310805 -1.14934 1.83419 1.13754 -1.19441 0.418041 0.0248821 0.684169 0.00500434 -1.43054 1.00284 -1.2188 -0.115288 -0.155171 0.0475024 0.4174 -1.06872 0.776029 -1.11658 -0.146619 -0.622339 -0.162167 0.324574 -0.125124 0.522777 -0.0849649 -0.467424 -0.531132 -0.151387 -0.0785537 -0.777235 -0.409955 -0.126725 0.365448 0.754875 0.820861 0.195804 -0.067885 -1.72108 1.26479 -0.412634 0.302819 -0.202745 -0.53962 0.897695 -0.383185 0.663059 0.556263 0.112078 0.535706 -0.509526 -0.0203397 0.481196 -1.32706 0.24299 -0.119125 -0.342831 0.73207 0.0549638 -1.1886 1.12312 0.0306464 0.0361022 0.249666 -0.551885 1.08708 -0.474066 0.666885 -0.693965 -0.3767 -0.665982 -1.00095 0.178074 0.374489 -0.967985 -0.381474 0.507665 -0.334277 0.596115 -0.796594 -0.289985 1.03871 0.673666 -0.309609 -0.356476 -0.249567 1.3209 -1.227 1.64633 0.136576 -0.161521 0.0094981 -0.858598 2.03799 0.373468 0.291919 -0.787449 -0.726977 -0.390935 0.110473 -0.168697 1.40672 -1.04363 -0.569061 -0.296246 -0.696053 0.164104 -0.955149 
-0.463832 -0.574055 -1.26968 0.0108845 -0.235404 0.0663261 0.385872 0.201049 -0.285307 0.458614 0.67608 -0.0941394 -0.461096 -0.41883 0.0532131 -0.0905038 -0.0575853 -0.246131 -0.546313 -0.182006 -1.14316 0.633284 0.421344 0.437211 0.0678603 -0.238542 0.451765 -0.294721 -0.145756 0.0589122 0.209888 0.0256215 
0.565317 0.340886 0.972749 -0.304748 0.417773 -0.108915 -0.151217 -0.195597 1.09721 -1.0114 -0.000207644 0.458841 -0.376669 0.389273 -0.0706052 -0.398482 -0.691415 0.113681 0.158346 -0.137741 0.511874 -0.0712648 -0.743284 -0.798671 0.568766 -0.136549 -0.0590658 0.397119 -0.0756774 -0.765279 -0.096657 0.30927 0.454749 -0.25579 -0.147288 -0.35515 -0.0875862 0.167923 -0.268634 -0.307434 0.945507 -0.576981 0.356652 0.333108 -0.571641 0.512639 -0.369535 0.0661551 -0.213564 0.85516 0.0895197 0.443382 0.0199564 0.179229 -0.131977 0.22359 0.0860488 -0.587623 0.446683 0.583888 -0.733931 -0.859291 0.435214 0.398373 0.42547 0.0370335 -0.30022 -0.00329979 -0.226021 0.490265 0.0314798 0.209134 0.202638 -0.54107 -0.885872 -0.0848465 -0.0553234 -0.183909 -0.0512004 -0.519678 -0.255998 0.141308 0.330722 -0.125764 -0.772052 0.541702 -0.571087 0.28419 -0.468436 -0.393971 -0.67872 0.138073 0.170067 -0.146256 -0.029839 0.397474 -0.275038 -0.265657 -0.257878 -0.261746 -0.133929 -0.421768 -0.417502 0.590891 0.620496 -0.0542021 -0.0893779 0.161188 0.258552 0.119569 0.256674 -0.520385 -0.50554 0.155022 0.71129 0.793389 -0.322998 0.367496 -0.667829 0.147096 0.293424 -0.414344 -0.0865841 0.312771 0.0613109 -0.911181 0.180887 0.195193 0.0748077 -0.232249 -0.305467 -0.356186 0.28524 -0.289505 0.199578 0.282089 0.462765 -0.00843378 -0.733854 0.166479 0.611809 -0.504053 -0.208561 -0.635571 -0.835345 -0.360534 0.591606 0.40871 -0.410669 0.238969 -0.709078 -0.10247 0.55661 -0.316914 -0.300031 -0.0960849 -0.325703 -0.26791 -0.346511 0.261021 -0.20473 -0.236164 -0.493989 -0.60113 -0.382635 0.512704 0.351242 -0.362686 0.0319397 -0.208913 -0.431378 0.338996 -0.349145 -0.418678 -0.27087 0.29077 0.411479 0.507635 0.0814429 -0.385416 -0.0685074 0.433604 0.288994 0.368493 -0.247898 -0.310574 0.0901794 -0.0279326 -0.00551977 -0.37174 -0.0836177 0.0672756 -0.350343 0.190486 -0.574063 0.0579212 0.304937 0.385333 0.575496 -0.227442 -0.263441 0.160157 0.486461 -0.12812 0.0838207 0.0064607 0.566478 0.0824328 0.0491227 -0.450622 -0.229166 -0.330099 -0.58039 0.561958 0.65651 0.340967 -0.287777 0.75157 0.555134 0.190072 0.442166 -0.167431 -0.0963637 -0.512246 -0.426165 -0.29368 -0.427922 0.324182 -0.3052 -0.00325859 0.300276 0.197458 -0.0575732 -0.424624 0.457484 -0.241187 0.141533 -0.243564 0.324398 0.255685 -0.44375 -0.111107 0.0128069 -0.429092 -0.493748 0.236387 -0.408567 0.015217 0.256194 -0.0987609 0.208407 -0.396576 0.189327 -0.61985 0.531602 0.122889 -0.248147 0.374566 -0.69103 0.408913 -0.445829 -0.260726 -0.0234983 -0.10347 -0.914435 0.981312 0.23879 -0.225386 -0.370771 -0.474043 0.582855 0.677304 0.422824 -0.980965 -0.884957 0.471664 -0.84481 -0.225485 0.311297 -0.0999961 -0.341288 0.023674 0.171813 0.0744757 0.653095 0.759144 -0.281903 0.216676 0.467645 -0.146945 -0.138053 0.00917244 0.00728834 0.407248 0.504975 -0.736937 -0.596477 -0.0822439 0.205145 -0.795583 -0.249906 0.192167 -0.199383 0.225451 0.500253 -0.395542 0.398597 -0.68841 -0.642512 0.590171 0.11452 -0.111034 -0.252441 0.578331 0.293491 -0.303272 0.572232 0.500364 0.179701 -0.651369 -0.00383756 -0.0808395 -0.0174091 -0.661433 -0.668148 0.507744 0.328294 -0.206682 -0.428979 0.12953 0.277232 0.0759506 -0.336157 -0.817385 -0.231822 -0.35208 -0.415584 0.130983 -0.348317 -0.20266 -0.0814639 0.709762 0.134459 -0.00513752 -0.170216 0.0260565 -0.291726 -0.126134 0.389859 0.0854619 0.021207 0.428908 0.167335 -0.221933 -0.332625 -0.370381 0.365641 0.308064 0.0933006 0.0824213 0.773766 -0.37053 -0.589028 0.464877 0.189806 0.355991 -0.485646 0.12068 -0.675837 0.553567 1.02429 0.146126 -0.308123 -0.0333069 -0.912809 -0.423139 0.2156 -0.407201 -0.168833 0.372147 -0.146656 -0.859865 0.29024 0.400177 -0.581515 0.015143 -0.200089 -0.249596 0.538955 0.339286 0.137465 0.209916 -0.513229 -0.0431233 0.260459 0.0235074 -0.701684 -0.254987 0.0826904 -0.0282265 0.285944 0.184814 -0.556386 0.364279 0.433367 -0.212605 0.533349 -0.0845659 -0.370739 0.271665 0.720104 0.0709761 0.291173 0.0340241 0.443415 0.0879199 -0.326389 0.0405029 0.440326 -0.225321 -0.167585 0.51128 0.00270575 -0.0205822 0.0415044 0.382332 0.541254 -0.0273919 -0.59626 0.0582997 0.425343 0.557054 -0.191706 -0.520672 -0.632199 -0.144017 -0.228014 0.492352 0.190094 -0.174866 0.340654 -0.0488376 0.538139 0.128668 -0.00310696 0.719241 -0.258662 -0.418292 -0.329007 0.19663 -0.293817 0.649492 0.422172 0.0720116 -0.339155 0.493829 0.208152 0.265941 0.441162 0.381889 -0.27712 0.173023 -0.241316 0.211853 -0.321333 -0.416323 -0.171336 0.245946 -0.218946 -0.198896 0.262497 -0.557973 -0.0718252 -0.366003 0.555817 -0.537088 -0.27992 0.122768 0.590873 -0.308663 0.071455 -0.32078 -0.589067 -0.486275 0.157427 -0.00776997 0.0340745 -0.493141 -0.0800555 0.6063 0.196299 -0.531805 -0.195011 -0.656788 0.148312 -0.346694 -0.111074 0.048349 -0.46843 -0.240939 -0.291159 0.0784583 -0.267094 0.531338 -0.184767 0.0779449 0.0418854 0.0461516 -0.270869 -0.137286 -0.40659 -0.211699 
-0.331617 0.308549 -0.303118 -0.197794 0.519141 -0.693782 0.0421788 1.40746 0.00034433 -0.577044 -0.124672 0.0650909 0.475356 0.909122 0.761641 0.476658 
0.866166 0.171053 -0.237701 0.0367784 -0.435344 -1.01316 -1.2684 -1.10479 -0.946445 0.324873 -1.1097 0.783531 0.0310388 -0.197025 0.226796 -1.15343 -1.05747 -1.43261 -0.861665 -0.797093 -0.407358 0.508007 0.375404 -0.150351 1.0733 0.626545 0.420085 -0.723046 0.185967 0.459886 0.429796 0.524095 0.604072 0.175139 0.114422 0.629279 0.301167 0.908467 -0.100018 -1.03054 -0.56409 -0.0916076 0.929941 0.870505 0.414487 -0.61688 -0.806493 1.22307 
-2.06062 -1.21635 -2.47954 
